Language model created by QuickLM on Mon Jan 23 08:16:55 EST 2017
Copyright (c) 1996-2010 Carnegie Mellon University and Alexander I. Rudnicky

The model is in standard ARPA format, designed by Doug Paul while he was at MITRE.

The code that was used to produce this language model is available in Open Source.
Please visit http://www.speech.cs.cmu.edu/tools/ for more information

The (fixed) discount mass is 0.5. The backoffs are computed using the ratio method.
This model based on a corpus of 7 sentences and 10 words

\data\
ngram 1=10
ngram 2=15
ngram 3=9

\1-grams:
-0.8177 </s> -0.3010
-0.8177 <s> -0.2293
-1.6628 BACK -0.2293
-1.6628 FORWARD -0.2293
-1.6628 LEFT -0.2293
-1.6628 OFF -0.2293
-1.6628 ON -0.2293
-1.6628 RIGHT -0.2293
-1.6628 STOP -0.2293
-1.3617 VOICECONTROL -0.2817

\2-grams:
-1.1461 <s> BACK 0.0000
-1.1461 <s> FORWARD 0.0000
-1.1461 <s> LEFT 0.0000
-1.1461 <s> RIGHT 0.0000
-1.1461 <s> STOP 0.0000
-0.8451 <s> VOICECONTROL 0.0000
-0.3010 BACK </s> -0.3010
-0.3010 FORWARD </s> -0.3010
-0.3010 LEFT </s> -0.3010
-0.3010 OFF </s> -0.3010
-0.3010 ON </s> -0.3010
-0.3010 RIGHT </s> -0.3010
-0.3010 STOP </s> -0.3010
-0.6021 VOICECONTROL OFF 0.0000
-0.6021 VOICECONTROL ON 0.0000

\3-grams:
-0.3010 <s> BACK </s>
-0.3010 <s> FORWARD </s>
-0.3010 <s> LEFT </s>
-0.3010 <s> RIGHT </s>
-0.3010 <s> STOP </s>
-0.6021 <s> VOICECONTROL OFF
-0.6021 <s> VOICECONTROL ON
-0.3010 VOICECONTROL OFF </s>
-0.3010 VOICECONTROL ON </s>

\end\
